<?xml version="1.0" encoding="UTF-8"?>
<!-- This network was created in GeNIe Academic, which can be used for academic teaching and research purposes only -->
<smile version="1.0" id="german_credit" numsamples="10000" discsamples="10000">
	<nodes>
		<cpt id="existingCreditsThisBank">
			<state id="s1_below_2" />
			<state id="s2_2_up" />
			<probabilities>0.633 0.367</probabilities>
		</cpt>
		<cpt id="ageYears">
			<state id="s1_below_26" />
			<state id="s2_26_30" />
			<state id="s3_30_36" />
			<state id="s4_36_45" />
			<state id="s5_45_up" />
			<parents>existingCreditsThisBank</parents>
			<probabilities>0.2290679304897314 0.1800947867298578 0.2116903633491311 0.1958925750394945 0.1832543443917851 0.1226158038147139 0.1825613079019074 0.2261580381471389 0.2370572207084469 0.2316076294277929</probabilities>
		</cpt>
		<cpt id="housing">
			<state id="A151" />
			<state id="A152" />
			<state id="A153" />
			<parents>ageYears</parents>
			<probabilities>0.4157894736842105 0.5578947368421052 0.02631578947368421 0.1878453038674033 0.7845303867403315 0.02762430939226519 0.1013824884792627 0.8018433179723502 0.09677419354838709 0.1279620853080569 0.7345971563981043 0.1374407582938389 0.0845771144278607 0.6766169154228856 0.2388059701492537</probabilities>
		</cpt>
		<cpt id="employmentSince">
			<state id="A71" />
			<state id="A72" />
			<state id="A73" />
			<state id="A74" />
			<state id="A75" />
			<parents>ageYears</parents>
			<probabilities>0.04736842105263158 0.2842105263157895 0.4105263157894737 0.1894736842105263 0.06842105263157895 0.04972375690607735 0.2596685082872928 0.4419889502762431 0.1712707182320442 0.07734806629834254 0.05529953917050691 0.1705069124423963 0.3456221198156682 0.2211981566820276 0.2073732718894009 0.06161137440758294 0.09004739336492892 0.3033175355450237 0.1848341232227488 0.3601895734597157 0.0945273631840796 0.07462686567164178 0.208955223880597 0.09950248756218905 0.5223880597014925</probabilities>
		</cpt>
		<cpt id="job">
			<state id="A171" />
			<state id="A172" />
			<state id="A173" />
			<state id="A174" />
			<parents>employmentSince</parents>
			<probabilities>0.2580645161290323 0.01612903225806452 0.1935483870967742 0.532258064516129 0.02906976744186046 0.2558139534883721 0.6220930232558139 0.09302325581395349 0.002949852507374631 0.2359882005899705 0.6784660766961652 0.08259587020648967 0.001428571428571429 0.1957142857142857 0.6814285714285714 0.1214285714285714 0.000984251968503937 0.1624015748031496 0.6387795275590551 0.1978346456692913</probabilities>
		</cpt>
		<cpt id="property">
			<state id="A121" />
			<state id="A122" />
			<state id="A123" />
			<state id="A124" />
			<parents>housing job</parents>
			<probabilities>0.375 0.2083333333333333 0.04166666666666666 0.375 0.4736842105263158 0.1578947368421053 0.2631578947368421 0.1052631578947368 0.2782608695652174 0.2956521739130435 0.3304347826086956 0.09565217391304348 0.1428571428571428 0.2380952380952381 0.5714285714285714 0.04761904761904762 0.4615384615384616 0.1538461538461539 0.3076923076923077 0.07692307692307693 0.525974025974026 0.2857142857142858 0.1753246753246753 0.01298701298701299 0.2831858407079646 0.252212389380531 0.4314159292035398 0.0331858407079646 0.1170212765957447 0.2553191489361702 0.4787234042553191 0.148936170212766 0.05 0.05 0.25 0.65 0.02777777777777778 0.02777777777777778 0.02777777777777778 0.9166666666666666 0.01953125 0.03515625 0.00390625 0.94140625 0.007352941176470588 0.007352941176470588 0.007352941176470588 0.9779411764705882</probabilities>
		</cpt>
		<cpt id="otherDebtors">
			<state id="A101" />
			<state id="A102" />
			<state id="A103" />
			<parents>property housing</parents>
			<probabilities>0.8909090909090909 0.05454545454545454 0.05454545454545454 0.8362831858407079 0.03982300884955752 0.1238938053097345 0.6666666666666667 0.1666666666666667 0.1666666666666667 0.8695652173913043 0.02173913043478261 0.108695652173913 0.9130434782608695 0.03804347826086957 0.04891304347826086 0.4444444444444444 0.1111111111111111 0.4444444444444444 0.9166666666666666 0.03333333333333333 0.05 0.966789667896679 0.02952029520295203 0.003690036900369004 0.6666666666666667 0.1666666666666667 0.1666666666666667 0.7017543859649122 0.2807017543859649 0.01754385964912281 0.875 0.0625 0.0625 0.9555555555555556 0.04126984126984127 0.003174603174603175</probabilities>
		</cpt>
		<cpt id="checkingAccountStatus">
			<state id="A11" />
			<state id="A12" />
			<state id="A13" />
			<state id="A14" />
			<parents>otherDebtors</parents>
			<probabilities>0.2624035281146637 0.2601984564498346 0.06615214994487321 0.4112458654906285 0.4146341463414634 0.2195121951219512 0.04878048780487805 0.3170731707317073 0.3653846153846154 0.4615384615384616 0.01923076923076923 0.1538461538461539</probabilities>
		</cpt>
		<cpt id="durationMonths">
			<state id="s1_below_12" />
			<state id="s2_12_15" />
			<state id="s3_15_24" />
			<state id="s4_24_30" />
			<state id="s5_30_up" />
			<parents>property</parents>
			<probabilities>0.2978723404255319 0.2624113475177305 0.2092198581560284 0.1418439716312057 0.08865248226950355 0.1767241379310345 0.1982758620689655 0.25 0.1939655172413793 0.1810344827586207 0.1024096385542169 0.1506024096385542 0.2409638554216867 0.2409638554216867 0.2650602409638554 0.1363636363636364 0.1103896103896104 0.1428571428571429 0.2337662337662338 0.3766233766233766</probabilities>
		</cpt>
		<cpt id="installmentRatePercent">
			<state id="s1_below_2" />
			<state id="s2_2_3" />
			<state id="s3_3_up" />
			<parents>durationMonths</parents>
			<probabilities>0.2944444444444445 0.2333333333333333 0.4722222222222223 0.0909090909090909 0.2192513368983957 0.6898395721925134 0.1324200913242009 0.2237442922374429 0.6438356164383561 0.06965174129353234 0.1990049751243781 0.7313432835820896 0.107981220657277 0.2769953051643192 0.6150234741784038</probabilities>
		</cpt>
		<cpt id="creditAmount">
			<state id="s1_below_1262" />
			<state id="s2_1262_1906" />
			<state id="s3_1906_2852" />
			<state id="s4_2852_4720" />
			<state id="s5_4720_up" />
			<parents>durationMonths installmentRatePercent</parents>
			<probabilities>0.2075471698113207 0.2641509433962264 0.169811320754717 0.2830188679245283 0.07547169811320754 0.2619047619047619 0.2857142857142857 0.3333333333333333 0.04761904761904762 0.07142857142857142 0.6069767441860464 0.3046511627906976 0.08372093023255812 0.002325581395348837 0.002325581395348837 0.1764705882352941 0.1764705882352941 0.1764705882352941 0.3529411764705882 0.1176470588235294 0.1707317073170732 0.3414634146341464 0.2195121951219512 0.1951219512195122 0.07317073170731708 0.4806201550387597 0.2713178294573643 0.1705426356589147 0.05426356589147287 0.02325581395348837 0.04000000000000001 0.006666666666666668 0.2066666666666667 0.4733333333333334 0.2733333333333334 0.08163265306122448 0.1224489795918367 0.3673469387755102 0.3061224489795918 0.1224489795918367 0.2056737588652482 0.3475177304964539 0.2482269503546099 0.148936170212766 0.04964539007092199 0.08 0.01333333333333333 0.1466666666666667 0.3466666666666667 0.4133333333333333 0.004878048780487806 0.05365853658536586 0.175609756097561 0.2975609756097561 0.4682926829268292 0.108843537414966 0.2448979591836735 0.2653061224489796 0.2721088435374149 0.108843537414966 0.008333333333333333 0.008333333333333333 0.05 0.1333333333333333 0.7999999999999999 0.003333333333333334 0.003333333333333334 0.05333333333333334 0.22 0.7200000000000001 0.007633587786259542 0.03816793893129771 0.1908396946564885 0.2977099236641221 0.4656488549618321</probabilities>
		</cpt>
		<cpt id="purpose">
			<state id="A40" />
			<state id="A41" />
			<state id="A410" />
			<state id="A42" />
			<state id="A43" />
			<state id="A44" />
			<state id="A45" />
			<state id="A46" />
			<state id="A48" />
			<state id="A49" />
			<parents>creditAmount</parents>
			<probabilities>0.3131313131313131 0.005050505050505051 0.005050505050505051 0.09595959595959597 0.3535353535353536 0.0303030303030303 0.0303030303030303 0.08585858585858587 0.03535353535353536 0.04545454545454546 0.2574257425742574 0.0396039603960396 0.009900990099009901 0.1683168316831683 0.3564356435643564 0.0198019801980198 0.02475247524752475 0.04455445544554455 0.004950495049504951 0.07425742574257425 0.2044776119402985 0.07512437810945274 0.005472636815920399 0.2393034825870647 0.3039800995024876 0.0004975124378109454 0.02537313432835821 0.03532338308457712 0.0004975124378109454 0.1099502487562189 0.1796019900497513 0.1348258706467662 0.0004975124378109454 0.2840796019900498 0.2293532338308458 0.01044776119402985 0.01044776119402985 0.02537313432835821 0.005472636815920399 0.1199004975124378 0.2144278606965175 0.2592039800995025 0.04029850746268657 0.1149253731343284 0.154726368159204 0.0004975124378109454 0.02039800995024876 0.06019900497512438 0.0004975124378109454 0.1348258706467662</probabilities>
		</cpt>
		<cpt id="personalStatusSex">
			<state id="A91" />
			<state id="A92" />
			<state id="A93" />
			<state id="A94" />
			<parents>ageYears</parents>
			<probabilities>0.01052631578947368 0.5526315789473684 0.2947368421052631 0.1421052631578947 0.03867403314917127 0.3646408839779005 0.4364640883977901 0.1602209944751381 0.06912442396313365 0.2350230414746544 0.6175115207373272 0.07834101382488479 0.05687203791469195 0.1848341232227488 0.7109004739336493 0.04739336492890996 0.06965174129353234 0.2437810945273632 0.6417910447761194 0.04477611940298507</probabilities>
		</cpt>
		<cpt id="creditHistory">
			<state id="A30" />
			<state id="A31" />
			<state id="A32" />
			<state id="A33" />
			<state id="A34" />
			<parents>purpose personalStatusSex ageYears existingCreditsThisBank</parents>
			<probabilities>0.2 0.2 0.2 0.2 0.2 0.2 0.2 0.2 0.2 0.2 0.2 0.2 0.2 0.2 0.2 0.06666666666666667 0.06666666666666667 0.06666666666666667 0.06666666666666667 0.7333333333333334 0.2 0.2 0.2 0.2 0.2 0.2 0.2 0.2 0.2 0.2 0.05 0.05 0.3 0.05 0.55 0.1 0.1 0.1 0.1 0.6 0.06666666666666665 0.06666666666666665 0.7333333333333333 0.06666666666666665 0.06666666666666665 0.06666666666666667 0.06666666666666667 0.4 0.4 0.06666666666666667 0.01052631578947369 0.01052631578947369 0.9578947368421055 0.01052631578947369 0.01052631578947369 0.06666666666666667 0.06666666666666667 0.4 0.06666666666666667 0.4 0.025 0.025 0.9 0.025 0.025 0.4571428571428571 0.1714285714285714 0.1714285714285714 0.02857142857142857 0.1714285714285714 0.01818181818181818 0.1090909090909091 0.8363636363636364 0.01818181818181818 0.01818181818181818 0.24 0.04000000000000001 0.04000000000000001 0.04000000000000001 0.6400000000000001 0.04000000000000001 0.04000000000000001 0.24 0.04000000000000001 0.6400000000000001 0.02 0.02 0.02 0.22 0.7200000000000001 0.02222222222222222 0.02222222222222222 0.6888888888888889 0.1333333333333333 0.1333333333333333 0.06666666666666667 0.06666666666666667 0.06666666666666667 0.06666666666666667 0.7333333333333334 0.02857142857142857 0.02857142857142857 0.8857142857142857 0.02857142857142857 0.02857142857142857 0.2 0.2 0.2 0.2 0.2 0.0125 0.1375 0.7625000000000002 0.0125 0.07500000000000001 0.1 0.1 0.1 0.6 0.1 0.05555555555555555 0.1111111111111111 0.7222222222222222 0.05555555555555555 0.05555555555555555 0.09999999999999999 0.09999999999999999 0.09999999999999999 0.01666666666666667 0.6833333333333332 0.008333333333333335 0.05 0.675 0.05 0.2166666666666667 0.008695652173913044 0.09565217391304348 0.05217391304347826 0.1391304347826087 0.7043478260869565 0.0125 0.0125 0.7625 0.075 0.1375 0.04347826086956522 0.04347826086956522 0.04347826086956522 0.2173913043478261 0.6521739130434783 0.02857142857142857 0.1714285714285714 0.6 0.02857142857142857 0.1714285714285714 0.2 0.2 0.2 0.2 0.2 0.05 0.05 0.8 0.05 0.05 0.03333333333333333 0.03333333333333333 0.2 0.03333333333333333 0.7 0.06666666666666665 0.06666666666666665 0.7333333333333333 0.06666666666666665 0.06666666666666665 0.06666666666666667 0.06666666666666667 0.06666666666666667 0.06666666666666667 0.7333333333333334 0.1 0.1 0.6 0.1 0.1 0.2 0.2 0.2 0.2 0.2 0.2 0.2 0.2 0.2 0.2 0.1 0.1 0.1 0.6 0.1 0.2 0.2 0.2 0.2 0.2 0.2 0.2 0.2 0.2 0.2 0.2 0.2 0.2 0.2 0.2 0.2 0.2 0.2 0.2 0.2 0.2 0.2 0.2 0.2 0.2 0.2 0.2 0.2 0.2 0.2 0.1 0.1 0.6 0.1 0.1 0.2 0.2 0.2 0.2 0.2 0.06666666666666665 0.06666666666666665 0.7333333333333333 0.06666666666666665 0.06666666666666665 0.2 0.2 0.2 0.2 0.2 0.02857142857142857 0.1714285714285714 0.7428571428571429 0.02857142857142857 0.02857142857142857 0.06666666666666667 0.06666666666666667 0.4 0.06666666666666667 0.4 0.02857142857142857 0.02857142857142857 0.7428571428571429 0.02857142857142857 0.1714285714285714 0.2 0.2 0.2 0.2 0.2 0.06666666666666665 0.06666666666666665 0.7333333333333333 0.06666666666666665 0.06666666666666665 0.2 0.2 0.2 0.2 0.2 0.06666666666666665 0.06666666666666665 0.7333333333333333 0.06666666666666665 0.06666666666666665 0.06666666666666667 0.06666666666666667 0.06666666666666667 0.06666666666666667 0.7333333333333334 0.06666666666666665 0.7333333333333333 0.06666666666666665 0.06666666666666665 0.06666666666666665 0.06666666666666667 0.06666666666666667 0.06666666666666667 0.4 0.4 0.1 0.1 0.6 0.1 0.1 0.3 0.05 0.05 0.05 0.55 0.03333333333333333 0.03333333333333333 0.6999999999999998 0.03333333333333333 0.2 0.04000000000000001 0.04000000000000001 0.04000000000000001 0.4400000000000001 0.4400000000000001 0.01538461538461539 0.01538461538461539 0.7846153846153846 0.09230769230769231 0.09230769230769231 0.02 0.02 0.12 0.22 0.6200000000000001 0.12 0.02 0.42 0.02 0.42 0.02 0.12 0.12 0.12 0.6200000000000001 0.01538461538461539 0.09230769230769231 0.7076923076923077 0.01538461538461539 0.1692307692307692 0.02857142857142857 0.02857142857142857 0.02857142857142857 0.02857142857142857 0.8857142857142857 0.1 0.1 0.6 0.1 0.1 0.1 0.1 0.1 0.1 0.6 0.06666666666666665 0.06666666666666665 0.7333333333333333 0.06666666666666665 0.06666666666666665 0.2 0.2 0.2 0.2 0.2 0.2 0.2 0.2 0.2 0.2 0.6000000000000001 0.1 0.1 0.1 0.1 0.1 0.1 0.1 0.6 0.1 0.2 0.2 0.2 0.2 0.2 0.2 0.2 0.2 0.2 0.2 0.2 0.2 0.2 0.2 0.2 0.2 0.2 0.2 0.2 0.2 0.2 0.2 0.2 0.2 0.2 0.2 0.2 0.2 0.2 0.2 0.2 0.2 0.2 0.2 0.2 0.2 0.2 0.2 0.2 0.2 0.2 0.2 0.2 0.2 0.2 0.1 0.1 0.6 0.1 0.1 0.2 0.2 0.2 0.2 0.2 0.2 0.2 0.2 0.2 0.2 0.2 0.2 0.2 0.2 0.2 0.2 0.2 0.2 0.2 0.2 0.2 0.2 0.2 0.2 0.2 0.2 0.2 0.2 0.2 0.2 0.2 0.2 0.2 0.2 0.2 0.6000000000000001 0.1 0.1 0.1 0.1 0.2 0.2 0.2 0.2 0.2 0.2 0.2 0.2 0.2 0.2 0.2 0.2 0.2 0.2 0.2 0.1 0.1 0.6 0.1 0.1 0.1 0.6000000000000001 0.1 0.1 0.1 0.2 0.2 0.2 0.2 0.2 0.2 0.2 0.2 0.2 0.2 0.2 0.2 0.2 0.2 0.2 0.05 0.05 0.3 0.3 0.3 0.1 0.1 0.1 0.6 0.1 0.2 0.2 0.2 0.2 0.2 0.06666666666666667 0.4 0.4 0.06666666666666667 0.06666666666666667 0.1 0.1 0.1 0.1 0.6 0.2 0.2 0.2 0.2 0.2 0.1 0.1 0.1 0.1 0.6 0.2 0.2 0.2 0.2 0.2 0.2 0.2 0.2 0.2 0.2 0.2 0.2 0.2 0.2 0.2 0.2 0.2 0.2 0.2 0.2 0.2 0.2 0.2 0.2 0.2 0.2 0.2 0.2 0.2 0.2 0.2 0.2 0.2 0.2 0.2 0.2 0.2 0.2 0.2 0.2 0.2 0.2 0.2 0.2 0.2 0.2 0.2 0.2 0.2 0.2 0.1 0.1 0.6 0.1 0.1 0.1 0.1 0.1 0.1 0.6 0.2 0.2 0.2 0.2 0.2 0.2 0.2 0.2 0.2 0.2 0.03999999999999999 0.03999999999999999 0.8399999999999999 0.03999999999999999 0.03999999999999999 0.4 0.06666666666666667 0.06666666666666667 0.06666666666666667 0.4 0.04000000000000001 0.04000000000000001 0.4400000000000001 0.24 0.24 0.2 0.2 0.2 0.2 0.2 0.05 0.3 0.55 0.05 0.05 0.2 0.2 0.2 0.2 0.2 0.009090909090909092 0.009090909090909092 0.781818181818182 0.05454545454545456 0.1454545454545455 0.09999999999999999 0.01666666666666667 0.09999999999999999 0.01666666666666667 0.7666666666666666 0.1090909090909091 0.01818181818181818 0.8363636363636364 0.01818181818181818 0.01818181818181818 0.02857142857142857 0.02857142857142857 0.3142857142857143 0.1714285714285714 0.4571428571428571 0.01538461538461539 0.01538461538461539 0.7076923076923077 0.09230769230769231 0.1692307692307692 0.4 0.06666666666666667 0.06666666666666667 0.4 0.06666666666666667 0.05 0.05 0.3 0.05 0.55 0.1 0.1 0.1 0.6 0.1 0.025 0.025 0.9 0.025 0.025 0.1 0.1 0.6 0.1 0.1 0.01428571428571429 0.1571428571428572 0.8 0.01428571428571429 0.01428571428571429 0.4 0.06666666666666667 0.06666666666666667 0.06666666666666667 0.4 0.01666666666666667 0.1 0.6833333333333333 0.1 0.1 0.05 0.05 0.3 0.05 0.55 0.01333333333333333 0.2133333333333333 0.5466666666666666 0.01333333333333333 0.2133333333333333 0.12 0.02 0.02 0.3200000000000001 0.52 0.01333333333333333 0.08 0.7466666666666666 0.01333333333333333 0.1466666666666667 0.02857142857142857 0.02857142857142857 0.02857142857142857 0.02857142857142857 0.8857142857142857 0.02222222222222222 0.02222222222222222 0.4666666666666667 0.02222222222222222 0.4666666666666667 0.2 0.03333333333333333 0.5333333333333333 0.03333333333333333 0.2 0.05 0.05 0.8 0.05 0.05 0.2 0.2 0.2 0.2 0.2 0.2 0.2 0.2 0.2 0.2 0.06666666666666667 0.06666666666666667 0.06666666666666667 0.06666666666666667 0.7333333333333334 0.2 0.2 0.2 0.2 0.2 0.2 0.2 0.2 0.2 0.2 0.1 0.1 0.6 0.1 0.1 0.2 0.2 0.2 0.2 0.2 0.2 0.2 0.2 0.2 0.2 0.1 0.1 0.1 0.1 0.6 0.2 0.2 0.2 0.2 0.2 0.2 0.2 0.2 0.2 0.2 0.05 0.3 0.55 0.05 0.05 0.2 0.2 0.2 0.2 0.2 0.06666666666666665 0.06666666666666665 0.7333333333333333 0.06666666666666665 0.06666666666666665 0.2 0.2 0.2 0.2 0.2 0.2 0.2 0.2 0.2 0.2 0.2 0.2 0.2 0.2 0.2 0.06666666666666665 0.06666666666666665 0.7333333333333333 0.06666666666666665 0.06666666666666665 0.2 0.2 0.2 0.2 0.2 0.009090909090909092 0.05454545454545456 0.8272727272727274 0.05454545454545456 0.05454545454545456 0.02857142857142857 0.02857142857142857 0.3142857142857143 0.1714285714285714 0.4571428571428571 0.01111111111111111 0.01111111111111111 0.7888888888888888 0.1222222222222222 0.06666666666666667 0.05 0.05 0.05 0.05 0.8 0.02 0.02 0.6200000000000001 0.02 0.3200000000000001 0.05 0.05 0.05 0.3 0.55 0.1714285714285714 0.02857142857142857 0.6 0.02857142857142857 0.1714285714285714 0.04000000000000001 0.24 0.24 0.04000000000000001 0.4400000000000001 0.01818181818181818 0.01818181818181818 0.9272727272727274 0.01818181818181818 0.01818181818181818 0.02857142857142857 0.02857142857142857 0.1714285714285714 0.02857142857142857 0.7428571428571429 0.01176470588235294 0.1294117647058824 0.8352941176470587 0.01176470588235294 0.01176470588235294 0.02 0.02 0.22 0.12 0.6200000000000001 0.02 0.02 0.7200000000000001 0.22 0.02 0.09999999999999999 0.01666666666666667 0.35 0.1833333333333333 0.35 0.01 0.06000000000000001 0.8100000000000002 0.06000000000000001 0.06000000000000001 0.06666666666666667 0.01111111111111111 0.2333333333333333 0.1222222222222222 0.5666666666666665 0.008695652173913045 0.05217391304347826 0.7043478260869566 0.0956521739130435 0.1391304347826087 0.01818181818181818 0.01818181818181818 0.1090909090909091 0.01818181818181818 0.8363636363636363 0.01052631578947368 0.1157894736842105 0.5368421052631578 0.06315789473684209 0.2736842105263158 0.0125 0.0125 0.075 0.0125 0.8875 0.01818181818181818 0.01818181818181818 0.9272727272727274 0.01818181818181818 0.01818181818181818 0.06666666666666667 0.06666666666666667 0.4 0.4 0.06666666666666667 0.01818181818181818 0.01818181818181818 0.9272727272727274 0.01818181818181818 0.01818181818181818 0.2 0.2 0.2 0.2 0.2 0.03333333333333333 0.03333333333333333 0.6999999999999998 0.03333333333333333 0.2 0.02857142857142857 0.02857142857142857 0.1714285714285714 0.3142857142857143 0.4571428571428571 0.24 0.04000000000000001 0.6400000000000001 0.04000000000000001 0.04000000000000001 0.1 0.1 0.6 0.1 0.1 0.1 0.1 0.1 0.6 0.1 0.05 0.05 0.05 0.05 0.8 0.2 0.2 0.2 0.2 0.2 0.2 0.2 0.2 0.2 0.2 0.2 0.2 0.2 0.2 0.2 0.2 0.2 0.2 0.2 0.2 0.2 0.2 0.2 0.2 0.2 0.2 0.2 0.2 0.2 0.2 0.2 0.2 0.2 0.2 0.2 0.2 0.2 0.2 0.2 0.2 0.1 0.1 0.6 0.1 0.1 0.2 0.2 0.2 0.2 0.2 0.03999999999999999 0.03999999999999999 0.8399999999999999 0.03999999999999999 0.03999999999999999 0.2 0.2 0.2 0.2 0.2 0.06666666666666667 0.4 0.4 0.06666666666666667 0.06666666666666667 0.2 0.2 0.2 0.2 0.2 0.2 0.2 0.2 0.2 0.2 0.2 0.2 0.2 0.2 0.2 0.2 0.2 0.2 0.2 0.2 0.2 0.2 0.2 0.2 0.2 0.2 0.2 0.2 0.2 0.2 0.2 0.2 0.2 0.2 0.2 0.2 0.2 0.2 0.2 0.2 0.2 0.2 0.2 0.2 0.2 0.1 0.1 0.1 0.1 0.6 0.2 0.2 0.2 0.2 0.2 0.2 0.2 0.2 0.2 0.2 0.2 0.2 0.2 0.2 0.2 0.1 0.1 0.6 0.1 0.1 0.1 0.1 0.6 0.1 0.1 0.1 0.1 0.6 0.1 0.1 0.2 0.2 0.2 0.2 0.2 0.2 0.2 0.2 0.2 0.2 0.2 0.2 0.2 0.2 0.2 0.2 0.2 0.2 0.2 0.2 0.2 0.2 0.2 0.2 0.2 0.2 0.2 0.2 0.2 0.2 0.2 0.2 0.2 0.2 0.2 0.2 0.2 0.2 0.2 0.2 0.2 0.2 0.2 0.2 0.2 0.1 0.1 0.6 0.1 0.1 0.2 0.2 0.2 0.2 0.2 0.2 0.2 0.2 0.2 0.2 0.2 0.2 0.2 0.2 0.2 0.2 0.2 0.2 0.2 0.2 0.2 0.2 0.2 0.2 0.2 0.1 0.1 0.6 0.1 0.1 0.1 0.1 0.1 0.1 0.6 0.2 0.2 0.2 0.2 0.2 0.2 0.2 0.2 0.2 0.2 0.2 0.2 0.2 0.2 0.2 0.2 0.2 0.2 0.2 0.2 0.06666666666666665 0.06666666666666665 0.7333333333333333 0.06666666666666665 0.06666666666666665 0.1 0.1 0.1 0.1 0.6 0.2 0.2 0.2 0.2 0.2 0.2 0.2 0.2 0.2 0.2 0.2 0.2 0.2 0.2 0.2 0.2 0.2 0.2 0.2 0.2 0.2 0.2 0.2 0.2 0.2 0.2 0.2 0.2 0.2 0.2 0.1 0.1 0.6 0.1 0.1 0.1 0.1 0.1 0.1 0.6 0.1 0.1 0.6 0.1 0.1 0.2 0.2 0.2 0.2 0.2 0.2 0.2 0.2 0.2 0.2 0.7333333333333333 0.06666666666666665 0.06666666666666665 0.06666666666666665 0.06666666666666665 0.06666666666666665 0.06666666666666665 0.7333333333333333 0.06666666666666665 0.06666666666666665 0.2 0.2 0.2 0.2 0.2 0.1 0.1 0.1 0.6 0.1 0.06666666666666667 0.06666666666666667 0.4 0.06666666666666667 0.4 0.2 0.2 0.2 0.2 0.2 0.04000000000000001 0.04000000000000001 0.24 0.24 0.4400000000000001 0.06666666666666665 0.06666666666666665 0.7333333333333333 0.06666666666666665 0.06666666666666665 0.2 0.2 0.2 0.2 0.2 0.2 0.2 0.2 0.2 0.2 0.2 0.2 0.2 0.2 0.2 0.2 0.2 0.2 0.2 0.2 0.2 0.2 0.2 0.2 0.2 0.2 0.2 0.2 0.2 0.2 0.2 0.2 0.2 0.2 0.2 0.2 0.2 0.2 0.2 0.2 0.1 0.1 0.1 0.6 0.1 0.2 0.2 0.2 0.2 0.2 0.2 0.2 0.2 0.2 0.2 0.2 0.2 0.2 0.2 0.2 0.2 0.2 0.2 0.2 0.2 0.1 0.1 0.1 0.1 0.6 0.2 0.2 0.2 0.2 0.2 0.2 0.2 0.2 0.2 0.2 0.2 0.2 0.2 0.2 0.2 0.2 0.2 0.2 0.2 0.2 0.2 0.2 0.2 0.2 0.2 0.04000000000000001 0.24 0.6400000000000001 0.04000000000000001 0.04000000000000001 0.05 0.05 0.05 0.3 0.55 0.1 0.1 0.6 0.1 0.1 0.2 0.2 0.2 0.2 0.2 0.04999999999999999 0.5499999999999999 0.04999999999999999 0.04999999999999999 0.2999999999999999 0.05 0.05 0.05 0.05 0.8 0.2 0.2 0.2 0.2 0.2 0.1 0.1 0.1 0.1 0.6 0.04000000000000001 0.04000000000000001 0.4400000000000001 0.04000000000000001 0.4400000000000001 0.06666666666666667 0.06666666666666667 0.4 0.06666666666666667 0.4 0.2 0.2 0.2 0.2 0.2 0.2 0.2 0.2 0.2 0.2 0.06666666666666667 0.06666666666666667 0.06666666666666667 0.4 0.4 0.1 0.1 0.1 0.6 0.1 0.05 0.05 0.3 0.3 0.3 0.05 0.05 0.3 0.05 0.55 0.025 0.025 0.9 0.025 0.025 0.1 0.1 0.1 0.1 0.6 0.025 0.025 0.65 0.15 0.15 0.05 0.05 0.3 0.05 0.55 0.2 0.2 0.2 0.2 0.2 0.2 0.2 0.2 0.2 0.2 0.1 0.1 0.6 0.1 0.1 0.2 0.2 0.2 0.2 0.2 0.2 0.2 0.2 0.2 0.2 0.2 0.2 0.2 0.2 0.2 0.2 0.2 0.2 0.2 0.2 0.2 0.2 0.2 0.2 0.2 0.2 0.2 0.2 0.2 0.2 0.2 0.2 0.2 0.2 0.2 0.2 0.2 0.2 0.2 0.2 0.2 0.2 0.2 0.2 0.2 0.2 0.2 0.2 0.2 0.2 0.2 0.2 0.2 0.2 0.2 0.2 0.2 0.2 0.2 0.2 0.2 0.2 0.2 0.2 0.2 0.2 0.2 0.2 0.2 0.2 0.2 0.2 0.2 0.2 0.2 0.2 0.2 0.2 0.2 0.2 0.2 0.2 0.2 0.2 0.2 0.2 0.2 0.2 0.2 0.2 0.2 0.2 0.2 0.2 0.2 0.2 0.2 0.2 0.2 0.2 0.2 0.2 0.2 0.2 0.2 0.1 0.6000000000000001 0.1 0.1 0.1 0.2 0.2 0.2 0.2 0.2 0.1 0.1 0.6 0.1 0.1 0.1 0.1 0.1 0.1 0.6 0.2 0.2 0.2 0.2 0.2 0.2 0.2 0.2 0.2 0.2 0.2 0.2 0.2 0.2 0.2 0.2 0.2 0.2 0.2 0.2 0.2 0.2 0.2 0.2 0.2 0.2 0.2 0.2 0.2 0.2 0.6000000000000001 0.1 0.1 0.1 0.1 0.2 0.2 0.2 0.2 0.2 0.1 0.1 0.6 0.1 0.1 0.1 0.1 0.6 0.1 0.1 0.2 0.2 0.2 0.2 0.2 0.2 0.2 0.2 0.2 0.2 0.1 0.1 0.6 0.1 0.1 0.2 0.2 0.2 0.2 0.2 0.2 0.2 0.2 0.2 0.2 0.1 0.1 0.6 0.1 0.1 0.2 0.2 0.2 0.2 0.2 0.2 0.2 0.2 0.2 0.2 0.2 0.2 0.2 0.2 0.2 0.2 0.2 0.2 0.2 0.2 0.1 0.6000000000000001 0.1 0.1 0.1 0.2 0.2 0.2 0.2 0.2 0.2 0.2 0.2 0.2 0.2 0.2 0.2 0.2 0.2 0.2 0.1 0.1 0.6 0.1 0.1 0.1 0.1 0.1 0.6 0.1 0.2 0.2 0.2 0.2 0.2 0.24 0.04000000000000001 0.04000000000000001 0.4400000000000001 0.24 0.1 0.1 0.6 0.1 0.1 0.1 0.1 0.1 0.1 0.6 0.2 0.2 0.2 0.2 0.2 0.06666666666666667 0.06666666666666667 0.4 0.06666666666666667 0.4 0.03999999999999999 0.03999999999999999 0.8399999999999999 0.03999999999999999 0.03999999999999999 0.2 0.2 0.2 0.2 0.2 0.06666666666666665 0.7333333333333333 0.06666666666666665 0.06666666666666665 0.06666666666666665 0.3142857142857143 0.02857142857142857 0.1714285714285714 0.1714285714285714 0.3142857142857143 0.1 0.1 0.6 0.1 0.1 0.2 0.2 0.2 0.2 0.2 0.05 0.3 0.55 0.05 0.05 0.4 0.06666666666666667 0.06666666666666667 0.06666666666666667 0.4 0.1 0.6000000000000001 0.1 0.1 0.1 0.2 0.2 0.2 0.2 0.2 0.3 0.05 0.55 0.05 0.05 0.4 0.06666666666666667 0.06666666666666667 0.4 0.06666666666666667 0.06666666666666667 0.06666666666666667 0.4 0.06666666666666667 0.4 0.12 0.02 0.02 0.42 0.42 0.22 0.22 0.42 0.12 0.02 0.02857142857142857 0.02857142857142857 0.3142857142857143 0.4571428571428571 0.1714285714285714 0.025 0.025 0.525 0.4 0.025 0.2 0.01818181818181818 0.1090909090909091 0.3818181818181818 0.290909090909091 0.375 0.125 0.125 0.125 0.25 0.3 0.05 0.3 0.3 0.05 0.1 0.1 0.6 0.1 0.1 0.2 0.2 0.2 0.2 0.2 0.04000000000000001 0.04000000000000001 0.6400000000000001 0.24 0.04000000000000001 0.1 0.1 0.1 0.1 0.6 0.1 0.1 0.6 0.1 0.1 0.2 0.2 0.2 0.2 0.2 0.1 0.1 0.6 0.1 0.1 0.1 0.1 0.1 0.1 0.6 0.2 0.2 0.2 0.2 0.2 0.2 0.2 0.2 0.2 0.2</probabilities>
		</cpt>
		<cpt id="savingsAccount">
			<state id="A61" />
			<state id="A62" />
			<state id="A63" />
			<state id="A64" />
			<state id="A65" />
			<parents>checkingAccountStatus</parents>
			<probabilities>0.7992700729927007 0.04379562043795621 0.0291970802919708 0.0218978102189781 0.1058394160583942 0.5650557620817843 0.174721189591078 0.04089219330855019 0.05204460966542751 0.1672862453531598 0.6507936507936507 0.07936507936507936 0.06349206349206349 0.04761904761904762 0.1587301587301587 0.4847715736040609 0.09898477157360405 0.1015228426395939 0.06345177664974619 0.2512690355329949</probabilities>
		</cpt>
		<cpt id="residenceSince">
			<state id="s1_below_2" />
			<state id="s2_2_up" />
			<parents>employmentSince</parents>
			<probabilities>0.09677419354838709 0.9032258064516129 0.313953488372093 0.686046511627907 0.0943952802359882 0.9056047197640118 0.1609195402298851 0.8390804597701149 0.03952569169960474 0.9604743083003952</probabilities>
		</cpt>
		<cpt id="otherInstallments">
			<state id="A141" />
			<state id="A142" />
			<state id="A143" />
			<parents>creditHistory</parents>
			<probabilities>0.25 0.05 0.7000000000000001 0.4897959183673469 0.163265306122449 0.3469387755102041 0.1132075471698113 0.0339622641509434 0.8528301886792453 0.1363636363636364 0.1136363636363636 0.75 0.1126279863481229 0.03071672354948805 0.8566552901023891</probabilities>
		</cpt>
		<cpt id="dependentsCount">
			<state id="s1_below_2" />
			<state id="s2_2_up" />
			<parents>personalStatusSex</parents>
			<probabilities>0.9400000000000001 0.06 0.9548387096774194 0.04516129032258064 0.7518248175182481 0.2481751824817518 0.9782608695652174 0.02173913043478261</probabilities>
		</cpt>
		<cpt id="telephone">
			<state id="A191" />
			<state id="A192" />
			<parents>job</parents>
			<probabilities>0.7272727272727273 0.2727272727272727 0.845 0.155 0.6190476190476191 0.3809523809523809 0.1418918918918919 0.8581081081081081</probabilities>
		</cpt>
		<cpt id="foreignWorker">
			<state id="A201" />
			<state id="A202" />
			<parents>otherDebtors</parents>
			<probabilities>0.9702315325248071 0.02976846747519294 0.9024390243902439 0.0975609756097561 0.8846153846153847 0.1153846153846154</probabilities>
		</cpt>
	</nodes>
	<extensions>
		<genie version="1.0" app="GeNIe 5.0.5310.0 ACADEMIC" name="german_credit">
			<node id="checkingAccountStatus">
				<name>checkingAccountStatus</name>
				<interior color="e5f6f7" />
				<outline color="000080" />
				<font color="000000" name="Arial" size="8" />
				<position>1017 31 1089 79</position>
				<barchart active="true" width="128" height="80" />
			</node>
			<node id="durationMonths">
				<name>durationMonths</name>
				<interior color="e5f6f7" />
				<outline color="000080" />
				<font color="000000" name="Arial" size="8" />
				<position>656 38 728 86</position>
				<barchart active="true" width="128" height="96" />
			</node>
			<node id="creditHistory">
				<name>creditHistory</name>
				<interior color="e5f6f7" />
				<outline color="000080" />
				<font color="000000" name="Arial" size="8" />
				<position>604 585 676 633</position>
				<barchart active="true" width="128" height="96" />
			</node>
			<node id="purpose">
				<name>purpose</name>
				<interior color="e5f6f7" />
				<outline color="000080" />
				<font color="000000" name="Arial" size="8" />
				<position>782 345 854 393</position>
				<barchart active="true" width="128" height="176" />
			</node>
			<node id="creditAmount">
				<name>creditAmount</name>
				<interior color="e5f6f7" />
				<outline color="000080" />
				<font color="000000" name="Arial" size="8" />
				<position>1039 164 1111 212</position>
				<barchart active="true" width="128" height="96" />
			</node>
			<node id="savingsAccount">
				<name>savingsAccount</name>
				<interior color="e5f6f7" />
				<outline color="000080" />
				<font color="000000" name="Arial" size="8" />
				<position>1216 40 1288 88</position>
				<barchart active="true" width="128" height="96" />
			</node>
			<node id="employmentSince">
				<name>employmentSince</name>
				<interior color="e5f6f7" />
				<outline color="000080" />
				<font color="000000" name="Arial" size="8" />
				<position>32 40 104 88</position>
				<barchart active="true" width="128" height="96" />
			</node>
			<node id="installmentRatePercent">
				<name>installmentRatePercent</name>
				<interior color="e5f6f7" />
				<outline color="000080" />
				<font color="000000" name="Arial" size="8" />
				<position>853 41 925 89</position>
				<barchart active="true" width="128" height="64" />
			</node>
			<node id="personalStatusSex">
				<name>personalStatusSex</name>
				<interior color="e5f6f7" />
				<outline color="000080" />
				<font color="000000" name="Arial" size="8" />
				<position>587 357 659 405</position>
				<barchart active="true" width="128" height="80" />
			</node>
			<node id="otherDebtors">
				<name>otherDebtors</name>
				<interior color="e5f6f7" />
				<outline color="000080" />
				<font color="000000" name="Arial" size="8" />
				<position>598 208 670 256</position>
				<barchart active="true" width="128" height="64" />
			</node>
			<node id="residenceSince">
				<name>residenceSince</name>
				<interior color="e5f6f7" />
				<outline color="000080" />
				<font color="000000" name="Arial" size="8" />
				<position>198 22 270 70</position>
				<barchart active="true" width="128" height="64" />
			</node>
			<node id="property">
				<name>property</name>
				<interior color="e5f6f7" />
				<outline color="000080" />
				<font color="000000" name="Arial" size="8" />
				<position>340 27 412 75</position>
				<barchart active="true" width="128" height="80" />
			</node>
			<node id="ageYears">
				<name>ageYears</name>
				<interior color="e5f6f7" />
				<outline color="000080" />
				<font color="000000" name="Arial" size="8" />
				<position>294 375 366 423</position>
				<barchart active="true" width="128" height="96" />
			</node>
			<node id="otherInstallments">
				<name>otherInstallments</name>
				<interior color="e5f6f7" />
				<outline color="000080" />
				<font color="000000" name="Arial" size="8" />
				<position>1155 272 1227 320</position>
				<barchart active="true" width="128" height="64" />
			</node>
			<node id="housing">
				<name>housing</name>
				<interior color="e5f6f7" />
				<outline color="000080" />
				<font color="000000" name="Arial" size="8" />
				<position>52 282 124 330</position>
				<barchart active="true" width="128" height="64" />
			</node>
			<node id="existingCreditsThisBank">
				<name>existingCreditsThisBank</name>
				<interior color="e5f6f7" />
				<outline color="000080" />
				<font color="000000" name="Arial" size="8" />
				<position>430 207 502 255</position>
				<barchart active="true" width="128" height="64" />
			</node>
			<node id="job">
				<name>job</name>
				<interior color="e5f6f7" />
				<outline color="000080" />
				<font color="000000" name="Arial" size="8" />
				<position>182 149 254 197</position>
				<barchart active="true" width="128" height="80" />
			</node>
			<node id="dependentsCount">
				<name>dependentsCount</name>
				<interior color="e5f6f7" />
				<outline color="000080" />
				<font color="000000" name="Arial" size="8" />
				<position>205 241 277 289</position>
				<barchart active="true" width="128" height="64" />
			</node>
			<node id="telephone">
				<name>telephone</name>
				<interior color="e5f6f7" />
				<outline color="000080" />
				<font color="000000" name="Arial" size="8" />
				<position>509 82 581 130</position>
				<barchart active="true" width="128" height="64" />
			</node>
			<node id="foreignWorker">
				<name>foreignWorker</name>
				<interior color="e5f6f7" />
				<outline color="000080" />
				<font color="000000" name="Arial" size="8" />
				<position>822 163 894 211</position>
				<barchart active="true" width="128" height="64" />
			</node>
			<textbox>
				<caption>Input file: german_credit.csv\nData rows: 1000\nElapsed time: 2.151s\n\nLearning algorithm: Bayesian Search\nAlgorithm parameters:\nIterations: 20\nMax parent count: 8\nSample size: 50\nLink probability: 0.1\nPrior link probability: 0.001\nSeed: 0\nMax search time: 0\nBackground knowledge was provided:\n  forced arcs: 4\n\nBest score in iteration 13: -19812.7\nEM Log Likelihood: -18185.6</caption>
				<font color="000000" name="Arial" size="8" />
				<position>11 559 196 775</position>
			</textbox>
		</genie>
	</extensions>
</smile>
